solver_type L2R_LR
nr_class 2
label 1 0
nr_feature 100
bias -1
w
-0.1916740610115708 
-0.07639156846038264 
0.1474932294481166 
0.2337049632222765 
0.3844535473156211 
0.1291533078408544 
-0.1485862092264863 
0.05576788943876663 
-0.1167869710619071 
0.01673865780624831 
0.112459517479541 
-0.0920418053378238 
-0.02527127044655288 
0.123920666385023 
-0.09529066281627971 
-0.1288494057326124 
0.2103737417720702 
0.2692553748930744 
0.3325199580261805 
-0.434052731829649 
0.2236929876388863 
-0.2264127398592725 
0.2603219905272303 
-0.2331091115736546 
-0.1282824510402296 
-0.08923629236804864 
0.08042487352126129 
-0.5713202699155498 
0.09455545092202634 
0.04306105823316263 
-0.1244747051745792 
0.08281212594363481 
0.2837972132849569 
-0.09641828355293076 
0.06701411665424452 
0.3227553063688323 
0.1790287440526701 
-0.5387868047887866 
-0.3203710700205717 
-0.1563544806912135 
-0.4720841466076924 
-0.2895528631254322 
0.1146343746173175 
-0.3984998200256432 
-1.664750713910622 
-0.4096267938811576 
-0.2183548443018695 
0.4476365443310424 
0.2287762995431037 
0.2521878801944716 
-0.1403450041918488 
-0.686368397629003 
-0.03012961621738685 
0.2972824117609796 
0.2157565988854419 
0.04482654668919201 
0.009229813101482071 
0.2402347620380416 
-0.4987071625355811 
0.2366917528933251 
-0.296344158247413 
0.6044606840772189 
-0.822453598209525 
-0.08330854342933934 
-0.1551320644638687 
-0.4337956367290062 
-0.2494216877688975 
0.215734864753504 
0.4543658491591515 
-0.05700122580175429 
0.104685439288732 
0.4656970162822056 
0.01630744057547093 
-1.885713065550183 
0.06392119853524364 
0.1792661954847225 
0.9544815066344176 
-0.4744338829143447 
-0.5102775942238454 
0.152466354173341 
-0.8869248983222081 
0.4188387610501311 
0.3579514811537239 
-0.03623510307749007 
0.2777632379903199 
0.1994814352334367 
0.4806066326345219 
-0.7231912811111133 
0.01140164695944926 
0.8423837242462703 
-0.3369211729838898 
0.5053259212448804 
-0.4362952416228003 
-0.2797971657887821 
-0.4673153029491178 
0.1306834001568763 
-0.5124326513604162 
0.2119811843016377 
0.1231215030912354 
0.187302421660911 
